digraph Tree {
node [shape=box, style="filled, rounded", color="black", fontname=helvetica] ;
edge [fontname=helvetica] ;
0 [label="len_last_zerro_group <= 0.5\ngini = 0.5\nsamples = 30620\nvalue = [24077, 24262]\nclass = 0", fillcolor="#fdfeff"] ;
1 [label="max_orders_per_month <= 4.5\ngini = 0.05\nsamples = 14100\nvalue = [21676, 563]\nclass = 1", fillcolor="#e6843e"] ;
0 -> 1 [labeldistance=2.5, labelangle=45, headlabel="True"] ;
2 [label="aug_2017 <= 2.5\ngini = 0.08\nsamples = 6924\nvalue = [10448, 429]\nclass = 1", fillcolor="#e68641"] ;
1 -> 2 ;
3 [label="aug_2017 <= 1.5\ngini = 0.12\nsamples = 2710\nvalue = [4011, 284]\nclass = 1", fillcolor="#e78a47"] ;
2 -> 3 ;
4 [label="mean_orders_per_month <= 1.75\ngini = 0.14\nsamples = 1277\nvalue = [1842, 156]\nclass = 1", fillcolor="#e78c4a"] ;
3 -> 4 ;
5 [label="(...)", fillcolor="#C0C0C0"] ;
4 -> 5 ;
38 [label="(...)", fillcolor="#C0C0C0"] ;
4 -> 38 ;
355 [label="mean_orders_per_month <= 2.05\ngini = 0.11\nsamples = 1433\nvalue = [2169, 128]\nclass = 1", fillcolor="#e78845"] ;
3 -> 355 ;
356 [label="(...)", fillcolor="#C0C0C0"] ;
355 -> 356 ;
385 [label="(...)", fillcolor="#C0C0C0"] ;
355 -> 385 ;
628 [label="count_orders <= 39.5\ngini = 0.04\nsamples = 4214\nvalue = [6437, 145]\nclass = 1", fillcolor="#e6843d"] ;
2 -> 628 ;
629 [label="jan_2017 <= 10.5\ngini = 0.07\nsamples = 1367\nvalue = [2087, 84]\nclass = 1", fillcolor="#e68641"] ;
628 -> 629 ;
630 [label="(...)", fillcolor="#C0C0C0"] ;
629 -> 630 ;
847 [label="(...)", fillcolor="#C0C0C0"] ;
629 -> 847 ;
848 [label="jan_2017 <= 33.0\ngini = 0.03\nsamples = 2847\nvalue = [4350, 61]\nclass = 1", fillcolor="#e5833c"] ;
628 -> 848 ;
849 [label="(...)", fillcolor="#C0C0C0"] ;
848 -> 849 ;
1052 [label="(...)", fillcolor="#C0C0C0"] ;
848 -> 1052 ;
1053 [label="jan_2017 <= 1.5\ngini = 0.02\nsamples = 7176\nvalue = [11228, 134]\nclass = 1", fillcolor="#e5833b"] ;
1 -> 1053 ;
1054 [label="max_goods_in_cart <= 18.65\ngini = 0.07\nsamples = 357\nvalue = [542, 21]\nclass = 1", fillcolor="#e68641"] ;
1053 -> 1054 ;
1055 [label="may_2017 <= 8.5\ngini = 0.34\nsamples = 8\nvalue = [11, 3]\nclass = 1", fillcolor="#eca36f"] ;
1054 -> 1055 ;
1056 [label="(...)", fillcolor="#C0C0C0"] ;
1055 -> 1056 ;
1057 [label="(...)", fillcolor="#C0C0C0"] ;
1055 -> 1057 ;
1058 [label="sum_rub_cart <= 22271.5\ngini = 0.06\nsamples = 349\nvalue = [531, 18]\nclass = 1", fillcolor="#e68540"] ;
1054 -> 1058 ;
1059 [label="(...)", fillcolor="#C0C0C0"] ;
1058 -> 1059 ;
1068 [label="(...)", fillcolor="#C0C0C0"] ;
1058 -> 1068 ;
1111 [label="sum_goods_in_cart <= 595.7\ngini = 0.02\nsamples = 6819\nvalue = [10686, 113]\nclass = 1", fillcolor="#e5823b"] ;
1053 -> 1111 ;
1112 [label="max_orders_per_month <= 35.5\ngini = 0.04\nsamples = 1453\nvalue = [2272, 51]\nclass = 1", fillcolor="#e6843d"] ;
1111 -> 1112 ;
1113 [label="(...)", fillcolor="#C0C0C0"] ;
1112 -> 1113 ;
1220 [label="(...)", fillcolor="#C0C0C0"] ;
1112 -> 1220 ;
1221 [label="count_orders <= 66.5\ngini = 0.01\nsamples = 5366\nvalue = [8414, 62]\nclass = 1", fillcolor="#e5823a"] ;
1111 -> 1221 ;
1222 [label="(...)", fillcolor="#C0C0C0"] ;
1221 -> 1222 ;
1331 [label="(...)", fillcolor="#C0C0C0"] ;
1221 -> 1331 ;
1426 [label="count_orders <= 24.5\ngini = 0.17\nsamples = 16520\nvalue = [2401, 23699]\nclass = 0", fillcolor="#4da7e8"] ;
0 -> 1426 [labeldistance=2.5, labelangle=-45, headlabel="False"] ;
1427 [label="july_2017 <= 0.5\ngini = 0.04\nsamples = 13481\nvalue = [418, 20900]\nclass = 0", fillcolor="#3d9fe6"] ;
1426 -> 1427 ;
1428 [label="gini = 0.0\nsamples = 10401\nvalue = [0, 16424]\nclass = 0", fillcolor="#399de5"] ;
1427 -> 1428 ;
1429 [label="len_last_short_zerro_group <= 0.5\ngini = 0.16\nsamples = 3080\nvalue = [418, 4476]\nclass = 0", fillcolor="#4ba6e7"] ;
1427 -> 1429 ;
1430 [label="aug_2017 <= 0.5\ngini = 0.43\nsamples = 388\nvalue = [418, 193]\nclass = 1", fillcolor="#f1bb94"] ;
1429 -> 1430 ;
1431 [label="(...)", fillcolor="#C0C0C0"] ;
1430 -> 1431 ;
1432 [label="(...)", fillcolor="#C0C0C0"] ;
1430 -> 1432 ;
1551 [label="gini = 0.0\nsamples = 2692\nvalue = [0, 4283]\nclass = 0", fillcolor="#399de5"] ;
1429 -> 1551 ;
1552 [label="oct_2016 <= 0.5\ngini = 0.49\nsamples = 3039\nvalue = [1983, 2799]\nclass = 0", fillcolor="#c5e2f7"] ;
1426 -> 1552 ;
1553 [label="june_2017 <= 0.5\ngini = 0.34\nsamples = 1640\nvalue = [1983, 541]\nclass = 1", fillcolor="#eca36f"] ;
1552 -> 1553 ;
1554 [label="gini = 0.0\nsamples = 78\nvalue = [0, 112]\nclass = 0", fillcolor="#399de5"] ;
1553 -> 1554 ;
1555 [label="len_last_zerro_group <= 1.5\ngini = 0.29\nsamples = 1562\nvalue = [1983, 429]\nclass = 1", fillcolor="#eb9c64"] ;
1553 -> 1555 ;
1556 [label="(...)", fillcolor="#C0C0C0"] ;
1555 -> 1556 ;
1757 [label="(...)", fillcolor="#C0C0C0"] ;
1555 -> 1757 ;
1828 [label="gini = 0.0\nsamples = 1399\nvalue = [0, 2258]\nclass = 0", fillcolor="#399de5"] ;
1552 -> 1828 ;
}